tree
version=v3
num_class=1
num_tree_per_iteration=1
label_index=0
max_feature_idx=22
objective=binary sigmoid:1
feature_names=ICULOS HR O2Sat Temp SBP MAP DBP Resp FiO2 pH PaCO2 BUN Calcium Creatinine Glucose Magnesium Potassium Hct Hgb WBC Platelets Age Sex
feature_infos=[-1.1651041666666668:16.282812500000002] [-3.8213859020310634:7.5286738351254492] [-25.869127516778526:0.97651006711409283] [-14.45070422535211:7.549295774647887] [-4.3668384879725082:6.8015463917525771] [-3.7948560930802206:13.351500306184937] [-3.0854092526690389:16.202846975088967] [-3.5088408644400784:15.94106090373281] [-153:4.5757575757575752] [-8.8333333333333375:5.8333333333333428] [-3.3211845102505695:6.7015945330296134] [-1.2252655114589157:10.010061486864169] [-3.2028301886792452:6.0424528301886804] [-0.75392670157068065:10.350785340314136] [-2.586726998491705:17.689075630252102] [-5.257142857142858:19.600000000000001] [-4.796610169491526:15.033898305084747] [-3.9640287769784175:6.0899280575539567] [-4.1384615384615389:6.8871794871794885] [-1.4741721854304637:31.757615894039738] [-1.9222517468753075:11.235901978151757] [-2.9321181646763042:2.347580138277813] [0:1]
tree_sizes=3364 3360 3376 3367 3390 3423 3385 3404 3415 3413

Tree=0
num_leaves=31
num_cat=0
split_feature=0 3 3 8 14 19 3 13 21 8 13 19 20 1 11 11 19 12 13 10 19 4 18 20 19 10 3 1 7 11
split_gain=3047.68 934.944 659.119 594.429 578.275 408.828 381.171 354.986 331.579 331.35 323.844 399.953 323.005 310.771 369.268 295.616 265.776 325.9 254.936 223.417 217.12 207.41 255.459 258.25 204.774 239.839 210.347 234.248 202.833 303.538
threshold=1.5171875000000001 2.0845070422535223 2.0352112676056344 0.90909090909090928 0.65072182719241534 -0.91125827814569527 1.3732394366197205 0.13350785340314139 1.0270270270270274 -0.62121212121212099 -0.57329842931937169 2.1880794701986761 0.20844405078240341 2.1075268817204309 -0.69424259362772489 0.87087758524315262 1.8834437086092717 -1.5353773584905657 2.0759162303664929 -1.1742596810933936 -1.3748344370860925 1.0000000180025095e-35 -2.3692307692307684 -0.059738214742643368 -0.023841059602649085 3.0000000000000013 -4.1408450704225368 -1.3870967741935483 2.3113948919449907 3.2744550027948578
decision_type=2 2 2 2 2 2 2 2 2 2 2 2 2 2 2 2 2 2 2 2 2 2 2 2 2 2 2 2 2 2
left_child=2 3 7 16 6 13 10 -1 18 -7 -5 19 15 14 -4 -6 28 -18 -3 -12 -9 22 23 -22 -24 26 27 -26 -2 -30
right_child=1 8 5 4 12 9 -8 20 -10 -11 11 -13 -14 -15 -16 -17 17 -19 -20 -21 21 -23 24 -25 25 -27 -28 -29 29 -31
leaf_value=-3.8037953771655011 -3.5998938945529471 -2.9707109020740474 -3.2186470780264722 -1.4356285874497119 -0.17626358561027011 -1.5568046013723857 -1.8664766369526029 -1.9162934426763771 -0.87014052247712703 -3.5705107211520861 -2.044393800251822 -1.4609910089683953 -3.4321476739855035 -3.5789293337073378 -0.048163228034849848 -2.3933851590309838 -0.6833275010129678 -3.2119472685298494 -1.0899205477290717 -3.6265137825708482 -0.63101985500301083 -3.7820554275110778 -3.7450454538297597 -3.8591488659035673 -3.8591488659035669 -1.6173926083337324 -3.5947204939046054 -1.1418685536977065 -3.3566862564482594 -1.5106423103542164
leaf_weight=3331.3165871798992 400.37804001383483 14.519865414127706 0.62451034039258957 0.82524580694735661 1.2490206807851789 0.8252458069473495 1.8066191989928473 0.66911822184920211 0.86985368840396482 83.14909103512764 0.93676551058889757 0.95906945131719012 0.93676551058888424 1.0705891549587248 0.89215762913227015 1.1598049178719518 0.53529457747936149 10.661283668130634 0.75833398476243097 18.913741737604138 0.55759851820766926 264.61395280063152 146.35845905914903 0.4460788145661343 0.55759851820766926 0.62451034039258857 127.44471732154489 0.73603004403412231 18.110799871385101 0.93676551058888335
leaf_count=149360 17951 651 28 37 56 37 81 30 39 3728 42 43 42 48 40 52 24 478 34 848 25 11864 6562 20 25 28 5714 33 812 42
internal_value=-3.75681 -3.51706 -3.78549 -3.54346 -3.08639 -3.51257 -3.26192 -3.79158 -2.76923 -3.55072 -3.37844 -3.45549 -1.85651 -2.27446 -1.35366 -1.24377 -3.57189 -3.09106 -2.87736 -3.55185 -3.71653 -3.71876 -3.65823 -2.06574 -3.66402 -3.57236 -3.58184 -2.31311 -3.58473 -3.2659
internal_weight=0 473.557 3959.89 457.409 26.787 86.5616 23.4414 3873.32 16.1481 83.9743 21.6348 20.8096 3.34559 2.58726 1.51667 2.40883 430.622 11.1966 15.2782 19.8505 542.008 541.339 276.725 1.00368 275.721 129.363 128.738 1.29363 419.426 19.0476
internal_count=198774 21232 177542 20508 1201 3881 1051 173661 724 3765 970 933 150 116 68 108 19307 502 685 890 24301 24271 12407 45 12362 5800 5772 58 18805 854
is_linear=0
shrinkage=1


Tree=1
num_leaves=31
num_cat=0
split_feature=0 3 3 13 0 20 18 13 0 5 8 14 15 16 7 15 17 0 12 9 13 19 17 20 7 1 21 14 14 0
split_gain=1711.37 488.47 248.262 242.982 238.841 233.501 220.671 305.031 161.67 180.542 155.046 141.48 201.526 125.663 121.04 118.625 114.683 114.495 112.828 277.284 119.636 111.309 195.564 536.753 108.964 100.19 96.7802 140.18 257.524 110.8
threshold=1.4651041666666669 1.5140845070422528 1.049295774647889 0.070680628272251272 -0.67031249999999998 -1.2579470524554666 -1.2282051282051276 0.92408376963350791 9.1734375000000021 0.49693815064298857 0.90909090909090928 2.7623357035121745 0.31428571428571467 0.44915254237288166 -3.1650294695481329 2.8857142857142866 -2.0845323741007191 15.892187500000002 -3.1580188679245276 1.5833333333333368 -0.34816753926701566 2.5456953642384108 0.10521582733812936 -0.30331660269658484 1.8202357563850691 1.480286738351255 1.3007542426147081 -1.0000000180025095e-35 0.068950657185951073 0.57968750000000002
decision_type=2 2 2 2 2 2 2 2 2 2 2 2 2 2 2 2 2 2 2 2 2 2 2 2 2 2 2 2 2 2
left_child=1 3 16 10 5 6 -5 -8 -4 -10 25 14 -13 -9 -12 -7 -2 -18 19 20 -3 -6 -23 -24 -16 -1 -20 -28 -29 -30
right_child=2 18 8 4 21 15 7 13 9 -11 11 12 -14 -15 24 -17 17 -19 26 -21 -22 22 23 -25 -26 -27 27 28 29 -31
leaf_value=-0.059706225109113525 1.3402009705419939 1.5443591676913933 0.23360856459128554 0.15941583690411096 -0.0098917487584845726 0.11394445621240318 3.1724376615807981 1.6107308792620221 0.49610057660202439 1.82848253524753 1.6841885736313509 0.19085546477166915 2.3180785396471548 -0.10239383281109811 0.011163655719495952 0.83965128231237751 0.11078066011455277 1.2465653786950948 0.08202021996188566 2.5184132507777988 0.00078092986392446309 -0.038866033897020702 -0.10657856526337668 3.2065217623371396 0.35285551928773784 0.010740111893485451 0.10697699667220557 2.0537547323515279 -0.10239260839985068 1.4275410243709759
leaf_weight=2633.9073174074292 0.76236024312674899 0.60714612901210818 132.25893813930452 2.3656788095831871 512.05746186897159 77.630711533129215 0.76340493187308256 0.87154454365372636 9.5294710397720319 1.1385026052594174 0.44782374054193397 1.3647961616516107 0.66107314079999913 0.84170183911919594 121.70143272727728 2.3197459168732157 506.02137845382094 0.88911539688706298 255.19352722167969 0.64859057962894429 2.9025458469986907 3.1407344266772261 1.2220344617962839 0.81519513577222813 10.108021572232245 218.6446100845933 6.1060709245502949 1.2521914169192299 1.8307024464011195 0.63844236731529225
leaf_count=123513 30 24 3665 41 22046 3239 34 18 185 34 21 64 31 37 5707 68 18145 31 10391 26 120 131 39 28 474 10253 226 54 81 18
internal_value=0 -0.0279365 0.147393 -0.0376814 0.0202756 0.17584 0.850132 1.5099 0.263814 0.638294 -0.0493633 0.0556468 0.885002 0.769089 0.042943 0.135001 0.114616 0.112773 0.101989 0.618846 0.267807 -0.00522685 0.456092 1.21915 0.0373668 -0.0543066 0.0938789 0.401821 0.885608 0.2932
internal_weight=0 3858.04 650.6 3588.86 602.028 84.7928 4.84233 2.47665 142.927 10.668 2986.84 134.283 2.02587 1.71325 132.257 79.9505 507.673 506.91 269.179 4.15828 3.50969 517.235 5.17796 2.03723 131.809 2852.55 265.021 9.82741 3.72134 2.46914
internal_count=198774 176684 22090 165744 25681 3437 130 89 3884 219 140063 6297 95 55 6202 3307 18206 18176 10940 170 144 22244 198 67 6181 133766 10770 379 153 99
is_linear=0
shrinkage=0.1


Tree=2
num_leaves=31
num_cat=0
split_feature=0 3 11 0 3 19 11 11 3 8 13 1 17 15 6 7 9 20 3 17 16 19 9 10 20 16 19 21 7 16
split_gain=1247.07 370.099 236.467 198.008 141.35 121.005 234.069 223.001 115.614 111.088 173.72 127.51 220.182 96.0609 90.8833 147.487 88.4212 129.622 118.947 101.19 111.542 174.541 92.1545 137.182 87.2113 95.8625 86.6829 89.8629 86.4776 83.1643
threshold=1.6213541666666669 1.5140845070422528 0.032420346562325231 -0.56614583333333324 -1.6619718309859148 -0.14304635761589415 2.0447177193963113 2.6036892118501958 0.69718309859155092 1.0000000180025095e-35 -0.6361256544502617 0.31541218637992846 0.055755395683453023 0.31428571428571467 -0.069395017793594388 -3.1650294695481329 1.0833333333333401 0.37575041826591882 2.7535211267605617 -0.34442446043165481 0.44915254237288166 0.25430463576158935 0.91666666666666952 1.2232346241457865 -0.51983072532231056 0.09322033898305114 1.6582781456953646 1.628849780012571 -3.1650294695481329 -2.2966101694915251
decision_type=2 2 2 2 2 2 2 2 2 2 2 2 2 2 2 2 2 2 2 2 2 2 2 2 2 2 2 2 2 2
left_child=1 2 9 4 5 -4 -7 -8 -2 -1 11 -11 -13 -9 -12 -16 18 -18 22 -19 -21 -22 -10 -24 -20 -26 -5 -28 -6 -3
right_child=8 29 3 26 28 6 7 13 16 10 14 12 -14 -15 15 -17 17 19 24 20 21 -23 23 -25 25 -27 27 -29 -30 -31
leaf_value=-0.062183167735003299 0.091963268358781908 0.993045948155314 0.025955689497564185 -0.022698449224877543 0.92370487692234315 0.32121000916796882 2.8813989456435798 -0.10286221079168996 0.17876422162528816 0.02725433190822061 -0.049832272746877265 0.43134623441147624 2.3730588645789692 1.4104155711658635 1.7951029759963757 0.028145969781042997 0.032714327348869698 0.13041884583661725 1.2163477054131679 0.40603183883916599 0.27258777344638646 2.35521055418541 0.35922659246745425 1.5220007745450139 0.72649731924353411 -0.10647576979887163 0.093687047214697908 0.74876851545279843 0.06443238611927625 0.076074510669237871
leaf_weight=1966.5080724004656 440.80022593215108 0.99222603067755599 6.5439277850091484 764.47841551154852 1.1790814418345679 8.6075384840369207 0.73723270557820741 0.69683549180626858 122.30608128197491 2.3182290308177462 342.61036075279117 1.8741130586713555 0.84835674799978722 1.0539006013423202 0.47338295355439086 225.69503308273852 67.478247031569481 12.480011759325864 1.8086071610450742 7.3932218663394433 0.79665507003664948 0.8131827712059021 12.158449040725825 1.1070082448422898 3.801089033484458 2.1705688834190369 35.790741126984358 2.2241966761648646 175.85185050405562 310.60167978331447
leaf_count=96407 14135 19 238 34902 21 301 29 26 3064 113 16427 88 39 25 16 10560 1690 269 29 120 22 22 299 32 57 38 1403 33 7214 11136
internal_value=0 -0.0254856 -0.0346885 0.0065781 0.0970532 0.367002 0.568144 1.42245 0.12205 -0.0508871 -0.0121747 0.572296 1.03641 0.808094 -0.0173545 0.0318443 0.179138 0.100824 0.227738 0.314754 0.570279 1.32459 0.205917 0.456261 0.607982 0.42373 -0.0153695 0.132015 0.0701554 0.0789945
internal_weight=0 3849.09 3537.49 997.164 194.67 17.6394 11.0955 2.48797 673.113 2540.33 573.819 5.0407 2.72247 1.75074 568.779 226.168 232.313 88.9613 143.352 21.4831 9.00306 1.60984 135.572 13.2655 7.78027 5.97166 802.493 38.0149 177.031 311.594
internal_count=198774 178997 167842 44192 7854 619 381 80 19777 123650 27243 240 127 51 27003 10576 5642 2123 3519 433 164 44 3395 331 124 95 36338 1436 7235 11155
is_linear=0
shrinkage=0.1


Tree=3
num_leaves=31
num_cat=0
split_feature=0 3 11 0 8 0 9 15 10 14 15 1 13 20 19 10 19 19 13 12 17 11 11 11 14 19 21 13 20 20
split_gain=939.164 290.26 172.526 155.906 96.2021 92.3753 117.755 216.14 155.059 104.47 97.0961 81.5391 91.5815 182.594 87.7023 203.557 81.3843 75.3062 113.172 73.2833 210.861 101.653 235.214 74.8677 73.0916 71.532 68.6068 66.2183 97.2525 65.2155
threshold=1.4130208333333336 1.3521126760563396 0.032420346562325231 -0.56614583333333324 0.90909090909090928 3.6005208333333338 -1.7499999999999996 0.31428571428571467 4.4692482915717555 0.176686059039 -1.9714285714285713 1.74910394265233 4.2120418848167551 -0.63792933766361559 2.6317880794701991 -0.59339407744874684 1.6582781456953646 0.38675496688741717 4.6780104712041899 -0.18632075471698109 1.4406474820143891 2.3801006148686419 2.5477920626048074 3.8334264952487427 -1.202327084680026 -0.97483443708609263 -2.7115021998742921 -0.3848167539267015 -1.1300068890857198 0.57258143883476065
decision_type=2 2 2 2 2 2 2 2 2 2 2 2 2 2 2 2 2 2 2 2 2 2 2 2 2 2 2 2 2 2
left_child=1 2 4 17 -1 19 7 8 9 -7 -8 12 14 -14 29 -16 26 -4 24 20 21 25 -23 -24 -19 -2 -5 28 -27 -3
right_child=5 11 3 16 -6 6 10 -9 -10 -11 -12 -13 13 -15 15 -17 -18 18 -20 -21 -22 22 23 -25 -26 27 -28 -29 -30 -31
leaf_value=-0.054836834880800281 0.97201378155943119 0.013289763114826221 0.044394139539663487 1.0184781914427397 0.036214104617312448 2.4609818866926414 1.2726378346249576 0.16574172088253084 0.14156936082516344 1.0355850415892207 0.11446009742153949 0.1698236872791235 -0.1031378690647709 2.1119357026168877 2.2271863769797284 -0.10290475857837281 0.11813807715008806 0.8319963532994672 1.2047964811047769 0.040319239783007069 1.5876871212704788 2.2482867633430113 -0.10516925335787275 0.84225185269767877 0.14025158769907009 1.299433070448206 -0.029972769586010736 0.046830358571281427 0.22506721151107631 0.14614175955520828
leaf_weight=2207.4179726038128 0.92952072806656261 284.46964628435671 167.05339151807129 0.62467587180435558 122.4808085039258 0.89679746702313323 0.72517397999763389 7.668425178155303 1.0209515690803526 1.205201221629977 397.82865729741752 54.467632422223687 0.90484120137989521 0.63212591595947631 0.60082490742206573 0.99715559929609188 39.676810612902045 1.5827644411474455 1.0702625662088383 358.0190114621073 1.005244331434368 0.72280685976147552 2.1248941887170081 1.3730369638651607 43.731865579262376 0.92265715636312862 706.21085616387427 58.038434181362391 9.7044699732214195 42.465974824503064
leaf_count=114097 28 10382 6243 31 5239 27 17 149 17 24 10226 1814 31 24 22 37 1383 43 38 10753 32 22 54 34 1443 23 33283 1398 258 1602
internal_value=0 -0.025742 -0.0353511 0.000325458 -0.0500504 0.091337 0.125393 0.451342 1.15264 1.64372 0.116567 0.056467 0.037761 0.807881 0.0341582 0.773187 -0.0212234 0.0756938 0.188418 0.0591296 0.149137 0.129547 0.606066 0.26672 0.164413 0.100647 -0.0290462 0.0888517 0.318345 0.030546
internal_weight=0 3674.39 3289.85 959.951 2329.9 842.185 409.345 10.7914 3.12295 2.102 398.554 384.538 330.071 1.53697 328.534 1.59798 746.512 213.438 46.3849 432.84 74.8211 73.8158 4.22074 3.49793 45.3146 69.5951 706.836 68.6656 10.6271 326.936
internal_count=198774 175712 161800 42464 119336 23062 10460 217 68 51 10243 13912 12098 55 12043 59 34697 7767 1524 12602 1849 1817 110 88 1486 1707 33314 1679 281 11984
is_linear=0
shrinkage=0.1


Tree=4
num_leaves=31
num_cat=0
split_feature=0 1 8 6 13 14 3 5 20 17 12 0 2 1 8 12 8 18 11 21 1 10 3 6 11 3 21 21 11 18
split_gain=698.005 233.656 116.406 91.6932 88.8769 126.426 89.6058 84.8249 111.299 437.077 92.8714 114.186 83.382 138.823 82.4508 100.904 161.078 241.383 150.997 109.099 82.9521 135.307 79.2539 74.2167 71.4502 70.0086 85.8419 184.911 129.342 116.84
threshold=1.4130208333333336 0.40501792114695356 0.25757575757575751 0.019572953736654707 0.049738219895287893 -1.0191769015298429 2.0352112676056344 -0.39099816289038564 -1.7401830528491289 -0.56924460431654689 1.820754716981132 -0.35781250000000003 0.89261744966442846 1.1816009557945046 1.0000000180025095e-35 0.88915094339622647 0.25757575757575751 -0.33076923076923048 0.75908328675237569 0.9657448145820241 1.6594982078853051 -1.0489749430523914 0.95774647887323916 -1.0000000180025095e-35 1.6674119619899386 1.2605633802816898 -1.1326209930861091 -1.2982401005656816 -0.52655114589155949 -0.25384615384615339
decision_type=2 2 2 2 2 2 2 2 2 2 2 2 2 2 2 2 2 2 2 2 2 2 2 2 2 2 2 2 2 2
left_child=1 7 3 4 6 12 23 10 9 -9 -1 -12 -6 -14 22 20 17 -17 19 -19 -16 -22 -2 -3 -20 -4 27 28 -27 -29
right_child=14 2 25 -5 5 -7 -8 8 -10 -11 11 -13 13 -15 15 16 -18 18 24 -21 21 -23 -24 -25 -26 26 -28 29 -30 -31
leaf_value=-0.020807518828988833 0.029172241769426135 -0.033704843216245776 0.053233703386951915 -0.035155822699835158 0.27667450607575844 0.069493873963943117 0.13669683621333242 0.041772019995031696 -0.059696817648197946 3.3944253857878488 2.1260139406970224 -0.1019721262161094 0.51987017502262522 2.2740626198848832 0.08420768370164565 2.3556780666715778 0.10668958018817326 2.123089023543888 -0.10368206017235281 0.50691225615427937 1.1130946382806379 0.21014471627982934 0.11532822960213439 0.051481659475986354 0.60768466052900205 1.137705042259886 0.14459685654367624 0.46413338265376436 -0.1031381439307141 2.1570129514205787
leaf_weight=972.71911850385368 432.78484274074435 321.37008208781481 114.38036631420255 444.26889125071466 8.6626608520746213 101.41080447286367 48.093285067006946 2.5882463622838263 1383.4153212886304 0.45759590901434322 0.44877723231911659 0.47193167731165786 1.9263440035283559 0.58909791894257058 299.40533515252173 0.77250374853610981 13.059508115053175 0.85328708589077151 2.8400767669081688 0.81816787458956242 1.795594105497005 21.905678706243634 141.7373241558671 150.01297913119197 2.8078648112714291 1.1282765287905925 33.05181473121047 0.70162544772028923 3.2884304411709313 0.9732106253504742
leaf_count=47940 12517 16566 4812 21499 255 3804 1129 106 70599 23 21 25 76 26 6886 22 235 26 83 22 31 349 2822 7583 69 40 1042 19 116 31
internal_value=0 -0.0240639 0.0112773 -0.00034189 0.0241283 0.104675 0.00667093 -0.0424804 -0.0583674 0.545462 -0.0198573 0.984006 0.423849 0.930689 0.0736162 0.112316 0.323915 0.674495 0.497059 1.33198 0.0984637 0.278552 0.0504273 -0.00659508 0.249973 0.0927377 0.208172 0.553121 0.213843 1.44783
internal_weight=0 3589.96 1229.86 1076.33 632.065 112.589 519.476 2360.1 1386.46 3.04584 973.64 0.920709 11.1781 2.51544 918.78 344.258 21.1514 8.0919 7.3194 1.67145 323.107 23.7013 574.522 471.383 5.64794 153.524 39.1434 6.09154 4.41671 1.67484
internal_count=198774 175712 56998 50938 29439 4161 25278 118714 70728 129 47986 46 357 102 23062 7723 457 222 200 48 7266 380 15339 24149 152 6060 1248 206 156 50
is_linear=0
shrinkage=0.1


Tree=5
num_leaves=31
num_cat=0
split_feature=0 3 11 0 8 19 6 20 5 7 6 4 4 9 20 21 17 3 18 12 15 6 19 19 10 3 0 21 13 0
split_gain=539.283 199.644 143.194 121.021 81.5892 119.138 87.1537 79.8329 69.371 70.4329 63.081 70.1945 266.463 432.966 153.055 257.056 73.1222 106.546 61.7124 61.6792 130.871 72.7998 74.4585 73.3161 87.8644 71.9291 65.7779 84.3859 63.4537 104.947
threshold=1.3609375000000001 1.3521126760563396 0.032420346562325231 -0.61822916666666672 1.0000000180025095e-35 -1.2688741721854304 -0.069395017793594388 4.2730046255289844 -0.14605021432945484 1.1817288801571713 0.019572953736654707 -1.0000000180025095e-35 1.0000000180025095e-35 0.91666666666666952 -0.0080700718433224395 0.73004399748585813 -0.34442446043165481 -1.0000000180025095e-35 5.3487179487179501 0.45283018867924529 -1.3285714285714285 -0.87010676156583622 0.2245033112582781 0.43973509933774835 -1.0000000180025095e-35 1.5845070422535215 2.2463541666666669 1.628849780012571 3.7408376963350789 3.5484375000000004
decision_type=2 2 2 2 2 2 2 2 2 2 2 2 2 2 2 2 2 2 2 2 2 2 2 2 2 2 2 2 2 2
left_child=1 2 4 7 18 -6 -7 -4 9 -5 11 -8 13 14 15 -13 17 -16 -1 26 -21 22 25 24 -24 -22 -2 28 -28 -30
right_child=19 -3 3 8 5 6 10 -9 -10 -11 -12 12 -14 -15 16 -17 -18 -19 -20 20 21 -23 23 -25 -26 -27 27 -29 29 -31
leaf_value=-0.057230201839815656 0.031227722154093408 0.042363700543464437 0.066473655671657902 -0.0045111311933630476 1.7761264966016648 -0.048073229292247048 0.022294105643570108 1.2196331289371578 -0.049160049617399643 0.1240787055654399 -0.0055625921164566073 3.1806434723634518 0.051172085631660563 3.0878403180731309 1.6921471806937829 -0.1024242050801617 0.17528993846880506 -0.10229074464054783 1.0144358349017659 0.89136629582686477 -0.028650436130567156 -0.0052667885694276844 1.4490584072590025 0.22621761384411163 0.27299995684273498 0.68200002826469541 0.091215040868787206 0.9027845087930424 -0.10360273154116446 1.4559363231582412
leaf_weight=1634.5407277327031 234.08102532103658 412.26743302121758 198.98607572540641 328.79030859097838 0.37270083464682002 293.06403380259871 44.599275166168809 0.60216507688164611 360.90835724212229 48.934986444190145 138.25929373688996 0.51783058606088062 26.600816370919347 0.68963394500315267 0.83578450419008732 0.44209976680576801 6.0023804772645217 0.54773498699068912 0.53752222284674545 1.7076084613800038 15.852927563712006 234.29724825359881 1.2224607057869437 8.5168202668428403 1.3225359674543131 1.5648628529161204 501.17904300242662 1.2911208011209954 0.83912321180105098 0.88825458288192749
leaf_count=93034 6554 13790 6716 15217 19 15505 2042 9 17976 2168 6538 24 1240 33 36 20 222 26 31 50 450 5763 28 163 31 24 10987 35 25 18
internal_value=0 -0.022995 -0.0317287 0.00086126 -0.0459701 -0.0111314 -0.0124335 0.0699528 -0.0178082 0.0121479 0.0353696 0.105903 0.21054 0.679725 0.480737 1.66861 0.326351 0.98173 -0.0568779 0.0601908 0.0187545 0.013084 0.164053 0.366949 0.837906 0.0351964 0.0750351 0.0953733 0.0933004 0.698346
internal_weight=0 3497.5 3085.23 938.222 2147.01 511.932 511.559 199.588 738.634 377.725 218.495 80.2356 35.6363 9.03546 8.34583 0.95993 7.3859 1.38352 1635.08 1002.76 264.484 262.777 28.4796 11.0618 2.545 17.4178 738.279 504.198 502.906 1.72738
internal_count=198774 174646 160856 42086 118770 25705 25686 6725 35361 17385 10181 3643 1601 361 328 44 284 62 93065 24128 6509 6459 696 222 59 474 17619 11065 11030 43
is_linear=0
shrinkage=0.1


Tree=6
num_leaves=31
num_cat=0
split_feature=0 1 5 13 10 18 0 7 9 6 18 19 18 21 21 11 17 0 20 20 21 1 8 0 14 7 1 0 1 4
split_gain=425.677 187.836 110.842 135.436 80.1872 84.6643 76.0863 74.4533 71.7386 66.6915 92.0868 132.29 148.504 65.5654 125.784 190.749 171.415 147.981 133.995 194.839 173.374 129.609 92.0666 86.4037 84.0616 92.0724 119.091 71.9845 73.9505 69.0466
threshold=1.3088541666666669 1.1517323775388295 -0.26852418860992028 -0.17015706806282724 -0.70728929384965789 -2.3692307692307684 -1.0348958333333333 -2.7721021611001961 -1.0833333333333324 0.055160142348754347 2.1435897435897444 0.042384105960264824 2.4000000000000008 1.0571967316153366 1.0848522941546201 1.7512576858580213 -1.0000000180025095e-35 -0.82656249999999998 0.71036315323294963 0.74972935734671797 1.628849780012571 0.40501792114695356 -0.30303030303030287 -0.35781250000000003 -0.34044386985563474 2.6306483300589396 -1.0286738351254479 -0.77447916666666672 0.55436081242532886 -1.1827749140893467
decision_type=2 2 2 2 2 2 2 2 2 2 2 2 2 2 2 2 2 2 2 2 2 2 2 2 2 2 2 2 2 2
left_child=1 2 3 -1 5 -4 -5 -3 -6 10 -9 -12 -13 24 15 16 -15 -18 23 -20 22 -22 -21 -16 27 -26 -27 28 -8 -30
right_child=-2 7 4 6 8 -7 13 9 -10 -11 11 12 -14 14 18 -17 17 -19 19 20 21 -23 -24 -25 25 26 -28 -29 29 -31
leaf_value=-0.04175011200560004 0.050022451125266765 0.584998880692988 1.3450946310462031 -0.10227622168219397 0.043598647200006363 0.019757490787841604 0.15391167683516604 0.053469459716887227 -0.062269892585422461 -0.014330374732519311 -0.010056232330433594 2.3626631930000221 0.51075931993941204 0.45875240113112448 0.13789590250822609 -0.10269872584103074 0.80821511779779309 3.2224986451409849 2.2935383248488317 1.3720302514583804 0.66850637787888045 2.7311746750066881 0.01249903319292759 -0.0528650765730386 -0.018646380739798584 1.9105009128179895 0.25816036133214909 0.045980282269599312 1.2279162294497263 0.34245931617134445
leaf_weight=696.8841866273433 1080.7966133859009 2.4375071059912434 0.4837912879884233 46.152170587331057 67.213110474869609 130.21567715145648 21.360872095450762 309.90774031914771 1341.301630364731 198.67568619735539 2.1533614192157975 0.64889259636402119 1.3015443999320266 1.228218814358115 49.271711794659495 1.8828346841037271 0.43941973708569981 0.60127767920494035 0.54244809970259478 0.5424958150833844 0.90746491961181142 0.45857548713684082 6.0877735856920481 45.828797908499837 333.73911223374307 0.49672857113182534 3.5792105775326482 139.90242126397789 1.275688888505101 2.8439513016492119
leaf_count=37214 25297 68 28 2484 3185 6290 853 12612 73924 9258 87 25 45 32 2380 76 23 27 20 23 36 16 271 2203 15991 21 141 6008 44 92
internal_value=0 -0.0220016 -0.0319072 -0.0110385 -0.0502651 0.0246633 0.0215306 0.0336339 -0.0572179 0.0310126 0.0597011 0.530298 1.12687 0.0308826 0.101661 0.641379 1.25884 2.2031 0.0800397 0.459509 0.335093 1.36094 0.123737 0.0459685 0.0157211 -0.0128769 0.459529 0.0741359 0.228726 0.61665
internal_weight=0 3408.36 2893.24 1354.03 1539.21 130.699 657.141 515.125 1408.51 512.687 314.012 4.1038 1.95044 610.989 107.791 4.15175 2.26892 1.0407 103.639 8.53876 7.99631 1.36604 6.63027 95.1005 503.198 337.815 4.07594 165.383 25.4805 4.11964
internal_count=198774 173477 151382 67955 83427 6318 30741 22095 77109 22027 12769 157 70 28257 5107 158 82 50 4949 366 346 52 294 4583 23150 16153 162 6997 989 136
is_linear=0
shrinkage=0.1


Tree=7
num_leaves=31
num_cat=0
split_feature=0 1 4 4 10 13 20 13 9 20 1 9 9 0 11 3 21 2 0 5 3 9 1 18 14 3 3 21 15 10
split_gain=345.542 171.056 77.9252 121.167 100.399 143.523 90.7218 72.1522 67.7205 69.4075 88.6214 153.815 64.0981 107.784 62.2915 94.3058 61.0832 57.5524 54.0052 53.8641 53.6994 48.5591 81.149 70.2245 60.7857 117.052 59.1608 56.417 59.0697 54.4911
threshold=1.3609375000000001 0.40501792114695356 1.0000000180025095e-35 -1.0000000180025095e-35 0.54555808656036497 -0.3900523560209424 -0.95285897057376234 0.070680628272251272 1.0833333333333401 0.55289833677787648 0.13620071684587826 2.0833333333333339 1.4166666666666663 0.52760416666666676 0.032420346562325231 1.6830985915492966 1.4396605908233817 -3.8053691275167791 -0.56614583333333324 -0.39099816289038564 1.049295774647889 -1.0000000180025095e-35 0.34528076463560348 1.0000000180025095e-35 -0.67442361560008635 -0.09859154929577503 -1.6619718309859148 0.33092394720301704 -0.18571428571428586 0.73348519362186859
decision_type=2 2 2 2 2 2 2 2 2 2 2 2 2 2 2 2 2 2 2 2 2 2 2 2 2 2 2 2 2 2
left_child=1 7 3 14 6 -6 -5 8 19 17 16 12 -12 -14 15 -3 -11 -10 -16 -1 21 22 26 -24 25 -25 27 28 -2 -26
right_child=20 2 -4 4 5 -7 -8 -9 9 10 11 -13 13 -15 18 -17 -18 -19 -20 -21 -22 -23 23 24 29 -27 -28 -29 -30 -31
leaf_value=-0.031387497203216506 0.16301207300312687 -0.019524699366301058 -0.021531750789666782 0.92562536227070125 1.5025396068011161 0.29536324141072828 0.10438876322426245 -0.00095136424437013893 0.7097057389406376 0.068492585152845828 -0.037503724298677842 2.4083836566421701 1.750072995601931 -0.10187207258555885 0.15059274475652845 0.096358359722802475 1.115163438819047 -0.017818557235807695 0.03590643563650734 -0.068572408892889222 0.082023383288846563 0.01724214704980552 0.076837932242937987 0.1854634837030931 0.33772171085109948 1.0857489231579651 0.0039694247321595917 0.046403780034681812 1.1917108102814746 0.051503316137771177
leaf_weight=684.29453130811453 1.0186814945191147 398.78427537064999 495.48205339163542 1.411679651588204 1.3643542136996982 3.5408883169293395 28.548279544338584 427.97062099538743 1.0983071066439141 18.301149563863881 1.5491248555481432 0.43809535168111313 0.70172877237200715 0.56916885636746883 55.49872968159616 85.23624431528151 0.57509373687207599 108.96727781090885 157.81484539993107 904.41458413749933 275.62120114266872 624.05999176949263 53.945699043571949 3.5615953225642443 13.62121267616749 2.4291413594037286 111.25202015414834 2.6555261574685574 1.2348437197506417 12.999961061403154
leaf_count=37611 13 21439 24297 32 40 71 892 18443 21 901 83 20 34 32 1428 2258 30 5822 6147 55045 4233 15341 1154 50 247 54 2625 72 34 305
internal_value=0 -0.0206832 0.00909471 0.0298198 0.211748 0.63113 0.143085 -0.0376957 -0.0468336 0.0219346 0.183512 0.665138 0.394322 0.920683 0.0207237 0.000882363 0.100381 -0.0105588 0.0657449 -0.052556 0.0437979 0.0310547 0.0735761 0.146871 0.262717 0.550514 0.0189605 0.358697 0.726699 0.197952
internal_weight=0 3376.56 1227.68 732.199 34.8652 4.90524 29.96 2148.88 1720.91 132.2 22.1344 3.25812 2.82002 1.2709 697.334 484.021 18.8762 110.066 213.314 1588.71 1102.4 826.779 202.719 86.5576 32.6119 5.99074 116.161 4.90905 2.25353 26.6212
internal_count=198774 174646 56604 32307 1035 111 924 118042 99599 6943 1100 169 149 66 31272 23697 931 5843 7575 92656 24128 19895 4554 1810 656 104 2744 119 47 552
is_linear=0
shrinkage=0.1


Tree=8
num_leaves=31
num_cat=0
split_feature=0 12 13 7 7 19 4 19 9 20 19 13 21 7 0 0 17 16 21 15 17 9 16 0 19 21 13 14 21 17
split_gain=277.61 159.303 114.547 94.5388 82.4329 232.829 79.1187 78.9028 136.804 257.792 147.869 285.479 73.6288 138.405 66.906 121.265 93.3672 77.6196 116.663 329.209 128.411 70.4976 66.7003 67.4347 65.5996 69.3068 64.2013 63.6046 63.5926 90.0015
threshold=1.6734375000000001 -0.12264150943396235 0.12827225130890055 1.9184675834970535 -2.7721021611001961 0.9562913907284768 -0.92504295532646019 -0.77880794701986755 0.749999999999999 -0.5591969294360789 -0.84503311258278135 -0.3848167539267015 1.5276555625392836 1.3290766208251477 -1.0348958333333333 -0.56614583333333324 3.9226618705035978 1.5677966101694916 0.96071653048397265 -1.0000000180025095e-35 -0.73111510791366896 1.5833333333333368 0.61864406779661063 -0.51406249999999998 -0.01059602649006635 -1.1112507856693898 -0.023560209424083788 -0.84680025856496466 0.1605908233815215 -0.029676258992805921
decision_type=2 2 2 2 2 2 2 2 2 2 2 2 2 2 2 2 2 2 2 2 2 2 2 2 2 2 2 2 2 2
left_child=1 6 3 4 5 22 7 8 10 -10 -1 -12 -8 -14 -6 16 17 21 26 -20 -21 -16 -3 -24 -4 -26 -19 -23 29 -27
right_child=-2 2 24 -5 14 -7 12 -9 9 -11 11 -13 13 -15 15 -17 -18 18 19 20 -22 27 23 -25 25 28 -28 -29 -30 -31
leaf_value=0.097274463988371529 0.042515446662883261 -0.03911545333924818 -0.017893719349101764 0.048634995084561761 -0.10193332664849229 1.4544906567357083 0.0042410541236615673 0.07110230360533365 2.90066780306688 0.037697607292804546 -0.10218531847573478 2.6596389849343325 0.20116511876804097 1.8384873224326275 -0.012685436888106331 -0.052855520873306631 1.4298297210858235 -0.082844831453889461 2.588183590737732 1.8081366723094281 -0.10249702345727214 0.80757996494384787 0.075584738729465001 1.2579147897540601 -0.096049704582238646 0.2345244985269731 0.31331925477104988 0.13921693984810005 0.027977503558005906 0.029351344820993986
leaf_weight=11.19377571903169 973.49351806938648 9.8761281557381135 275.58791458979249 123.79586015455425 175.04625625163317 1.3460741704329837 418.4520133016631 124.8135232636705 0.5659299697726965 0.70794611051678547 0.82448400184512138 0.68539952859282383 5.7798664933070532 0.56691594049334515 566.58717874530703 1490.4899361971766 0.45659085921943088 9.6815360765904224 0.7427795818075541 0.41870465129613954 2.2001284342259155 1.6285077910870303 1.0870012529194353 0.86729338765144248 27.447493579238653 46.040047388523817 7.0836630044505009 11.329796102829276 127.63147953152657 39.916364839300513
leaf_count=286 19153 372 12247 5332 11308 32 19341 4888 23 29 45 20 259 33 31368 83964 18 451 29 20 97 41 39 26 1122 1602 288 488 4358 1495
internal_value=0 -0.0178895 -0.0272866 -0.036472 -0.0410953 0.208302 0.0307848 0.0963342 0.321644 1.3096 0.222576 1.15152 0.00936832 0.347416 -0.0425457 -0.0375732 0.000382072 -0.00070631 0.19235 0.730012 0.202979 -0.0074109 0.0665093 0.600289 0.0154316 0.0535341 0.0845432 0.223212 0.0727566 0.139246
internal_weight=0 3482.85 2919.26 2402.64 2278.84 13.1765 563.59 138.791 13.9775 1.27388 12.7037 1.50988 424.799 6.34678 2265.67 2090.62 600.129 599.672 20.1268 3.36161 2.61883 579.545 11.8304 1.95429 516.623 241.035 16.7652 12.9583 213.588 85.9564
internal_count=198774 179621 154697 133873 128541 469 24924 5291 403 52 351 65 19633 292 128072 116764 32800 32782 885 146 117 31897 437 65 20824 8577 739 529 7455 3097
is_linear=0
shrinkage=0.1


Tree=9
num_leaves=31
num_cat=0
split_feature=0 0 0 8 1 3 13 16 20 13 11 12 9 19 13 15 10 0 8 21 21 11 14 19 12 16 16 21 5 0
split_gain=231.765 140.9 141.502 119.456 96.1218 68.8059 75.11 79.7632 159.537 122.692 67.2165 63.1956 58.0601 55.7595 141.707 63.2564 121.488 195.721 54.2897 52.2083 163.858 302.963 136.011 123.241 50.8154 69.2001 198.351 202.782 53.1445 53.3585
threshold=1.3088541666666669 -1.0348958333333333 -0.51406249999999998 0.25757575757575751 1.2114695340501795 1.1901408450704263 1.0235602094240841 0.78813559322033899 -0.52967227635075276 2.2120418848167547 0.31190609278926767 3.4952830188679251 1.5833333333333368 1.7509933774834439 2.2120418848167547 1.6714285714285717 -1.0000000180025095e-35 0.26718750000000002 -0.25757575757575746 -1.8004399748585793 -2.0028284098051534 0.10229178311906084 -0.071105365223012515 -0.87152317880794705 -0.55660377358490554 -0.90677966101694896 -1.0593220338983049 1.0270270270270274 -1.5851194121249232 0.68385416666666676
decision_type=2 2 2 2 2 2 2 2 2 2 2 2 2 2 2 2 2 2 2 2 2 2 2 2 2 2 2 2 2 2
left_child=1 -1 4 5 10 13 -7 8 -8 -10 11 12 -3 18 15 -15 -17 -18 19 20 -4 23 -23 -22 25 26 27 -5 -27 -30
right_child=-2 2 3 24 -6 6 7 -9 9 -11 -12 -13 -14 14 -16 16 17 -19 -20 -21 21 22 -24 -25 -26 28 -28 -29 29 -31
leaf_value=-0.10215174412928241 0.032768990363898527 -0.016982999770058384 0.00084196184395394233 -0.028820354168227914 0.08909684421981709 -0.0048260635220638108 0.087888393507228324 0.0022171218464344038 1.7176604236175288 0.43313742881871287 0.058216278522516186 0.98888481453408694 0.14903314884715943 0.018225564449134441 1.7755990064250626 -0.042619611444655342 -0.10220239580534107 2.8679536483093155 -0.061311257584587664 -0.026661411978033539 1.3253762258776893 3.847980605460684 1.1861665725435311 -0.10216955163182491 0.014168668856206516 0.75813519994911571 2.157467176019197 1.9942829811034359 -0.0024453497494402918 0.24516020884730369
leaf_weight=190.37515603471547 1199.0131325479597 647.60214147157967 16.544357342645529 3.6946320701390505 157.00618748459965 264.67328513599932 4.7369050327688456 8.2575404178351146 1.3694811407476657 1.6269952449947593 179.82734686508775 0.63196211308240791 21.77404105104506 41.320489230565727 0.47895633801817794 1.3159983418881895 0.41918332129716773 0.4713095910847187 1059.4851816194132 392.0793172288686 0.82740103639662343 0.37974930554628372 0.38819647207856167 2.2473464980721465 201.92207005340606 1.1525761000812043 0.61939442344009776 0.57216806523501862 29.802376018837094 12.293352886103092
leaf_count=12684 25297 36415 971 135 5851 10337 88 263 39 29 5741 7 708 1840 15 41 21 20 64449 23024 12 20 22 128 9027 33 25 24 1168 340
internal_value=0 -0.0186842 -0.0134803 -0.0285789 0.0172116 -0.0375919 0.00788955 0.218352 0.449135 1.0202 0.00393093 -0.010639 -0.0115827 -0.0460124 0.0649069 0.046083 0.567763 1.46981 -0.0493284 -0.0185487 0.137473 0.725726 2.50243 0.281977 0.0361784 0.128508 0.485226 0.242473 0.0882063 0.0698637
internal_weight=0 3243.9 3053.52 2046.68 1006.84 1796.62 280.664 15.9909 7.73338 2.99648 849.835 670.008 669.376 1515.96 44.0059 43.527 2.20649 0.890493 1471.95 412.466 20.3871 3.84269 0.767946 3.07475 250.057 48.1345 4.88619 4.2668 43.2483 42.0957
internal_count=198774 173477 160793 112071 48722 101319 10756 419 156 68 42871 37130 37123 90563 1937 1922 82 41 88626 24177 1153 182 42 140 10752 1725 184 159 1541 1508
is_linear=0
shrinkage=0.1


end of trees

feature_importances:
ICULOS=34
WBC=23
Temp=22
Creatinine=21
Age=21
BUN=18
Platelets=18
HR=16
pH=13
FiO2=12
Resp=11
PaCO2=11
Glucose=11
Hct=11
Calcium=9
Magnesium=9
Potassium=9
Hgb=9
SBP=7
DBP=7
MAP=6
O2Sat=2

parameters:
[boosting: gbdt]
[objective: binary]
[metric: binary_logloss]
[tree_learner: serial]
[device_type: cpu]
[linear_tree: 0]
[data: ]
[valid: ]
[num_iterations: 10]
[learning_rate: 0.1]
[num_leaves: 31]
[num_threads: 0]
[deterministic: 0]
[force_col_wise: 0]
[force_row_wise: 0]
[histogram_pool_size: -1]
[max_depth: -1]
[min_data_in_leaf: 20]
[min_sum_hessian_in_leaf: 0.001]
[bagging_fraction: 1]
[pos_bagging_fraction: 1]
[neg_bagging_fraction: 1]
[bagging_freq: 0]
[bagging_seed: 3]
[feature_fraction: 1]
[feature_fraction_bynode: 1]
[feature_fraction_seed: 2]
[extra_trees: 0]
[extra_seed: 6]
[early_stopping_round: 0]
[first_metric_only: 0]
[max_delta_step: 0]
[lambda_l1: 0]
[lambda_l2: 0]
[linear_lambda: 0]
[min_gain_to_split: 0]
[drop_rate: 0.1]
[max_drop: 50]
[skip_drop: 0.5]
[xgboost_dart_mode: 0]
[uniform_drop: 0]
[drop_seed: 4]
[top_rate: 0.2]
[other_rate: 0.1]
[min_data_per_group: 100]
[max_cat_threshold: 32]
[cat_l2: 10]
[cat_smooth: 10]
[max_cat_to_onehot: 4]
[top_k: 20]
[monotone_constraints: ]
[monotone_constraints_method: basic]
[monotone_penalty: 0]
[feature_contri: ]
[forcedsplits_filename: ]
[refit_decay_rate: 0.9]
[cegb_tradeoff: 1]
[cegb_penalty_split: 0]
[cegb_penalty_feature_lazy: ]
[cegb_penalty_feature_coupled: ]
[path_smooth: 0]
[interaction_constraints: ]
[verbosity: 1]
[saved_feature_importance_type: 0]
[max_bin: 255]
[max_bin_by_feature: ]
[min_data_in_bin: 3]
[bin_construct_sample_cnt: 200000]
[data_random_seed: 1]
[is_enable_sparse: 1]
[enable_bundle: 1]
[use_missing: 1]
[zero_as_missing: 0]
[feature_pre_filter: 1]
[pre_partition: 0]
[two_round: 0]
[header: 0]
[label_column: ]
[weight_column: ]
[group_column: ]
[ignore_column: ]
[categorical_feature: ]
[forcedbins_filename: ]
[objective_seed: 5]
[num_class: 1]
[is_unbalance: 0]
[scale_pos_weight: 1]
[sigmoid: 1]
[boost_from_average: 1]
[reg_sqrt: 0]
[alpha: 0.9]
[fair_c: 1]
[poisson_max_delta_step: 0.7]
[tweedie_variance_power: 1.5]
[lambdarank_truncation_level: 30]
[lambdarank_norm: 1]
[label_gain: ]
[eval_at: ]
[multi_error_top_k: 1]
[auc_mu_weights: ]
[num_machines: 1]
[local_listen_port: 12400]
[time_out: 120]
[machine_list_filename: ]
[machines: ]
[gpu_platform_id: -1]
[gpu_device_id: -1]
[gpu_use_dp: 0]
[num_gpu: 1]

end of parameters
